<neuralNetwork>
<<<<<<< Updated upstream:0.nndf
    <neuron name = "0" type = "sensor" linkName = "Link2" />
    <neuron name = "1" type = "sensor" linkName = "Start" />
    <neuron name = "2" type = "sensor" linkName = "Link1" />
    <neuron name = "3" type = "sensor" linkName = "Link8" />
    <neuron name = "4" type = "sensor" linkName = "Link9" />
    <neuron name = "5" type = "sensor" linkName = "Link10" />
    <neuron name = "6" type = "sensor" linkName = "Link4" />
    <neuron name = "7" type = "motor"  jointName = "Start_Link1" />
    <neuron name = "8" type = "motor"  jointName = "Link1_Link2" />
    <neuron name = "9" type = "motor"  jointName = "Link1_Link4" />
    <neuron name = "10" type = "motor"  jointName = "Link4_Link5" />
    <neuron name = "11" type = "motor"  jointName = "Link5_Link6" />
    <neuron name = "12" type = "motor"  jointName = "Start_Link7" />
    <neuron name = "13" type = "motor"  jointName = "Link5_Link8" />
    <neuron name = "14" type = "motor"  jointName = "Link4_Link9" />
    <neuron name = "15" type = "motor"  jointName = "Link4_Link10" />
    <synapse sourceNeuronName = "1" targetNeuronName = "7" weight = "-0.639650563772709" />
    <synapse sourceNeuronName = "1" targetNeuronName = "8" weight = "0.11462870375546585" />
    <synapse sourceNeuronName = "1" targetNeuronName = "9" weight = "0.7973495967327631" />
    <synapse sourceNeuronName = "1" targetNeuronName = "10" weight = "-0.1278821889915298" />
    <synapse sourceNeuronName = "1" targetNeuronName = "11" weight = "0.9251329265093635" />
    <synapse sourceNeuronName = "1" targetNeuronName = "12" weight = "0.7486521199815126" />
    <synapse sourceNeuronName = "1" targetNeuronName = "13" weight = "0.8274013534296862" />
    <synapse sourceNeuronName = "1" targetNeuronName = "14" weight = "0.4239288908829477" />
    <synapse sourceNeuronName = "1" targetNeuronName = "15" weight = "-0.23748597602089005" />
    <synapse sourceNeuronName = "2" targetNeuronName = "7" weight = "-0.3664884266415811" />
    <synapse sourceNeuronName = "2" targetNeuronName = "8" weight = "-0.12870596919708555" />
    <synapse sourceNeuronName = "2" targetNeuronName = "9" weight = "0.3976188583159841" />
    <synapse sourceNeuronName = "2" targetNeuronName = "10" weight = "-0.4718682629947506" />
    <synapse sourceNeuronName = "2" targetNeuronName = "11" weight = "-0.06006621452371563" />
    <synapse sourceNeuronName = "2" targetNeuronName = "12" weight = "-0.5051979148375354" />
    <synapse sourceNeuronName = "2" targetNeuronName = "13" weight = "0.9893570170948167" />
    <synapse sourceNeuronName = "2" targetNeuronName = "14" weight = "0.10574006946107084" />
    <synapse sourceNeuronName = "2" targetNeuronName = "15" weight = "-0.6314786799514644" />
    <synapse sourceNeuronName = "3" targetNeuronName = "7" weight = "-0.673647718319619" />
    <synapse sourceNeuronName = "3" targetNeuronName = "8" weight = "0.5308772106704207" />
    <synapse sourceNeuronName = "3" targetNeuronName = "9" weight = "-0.5233421148087847" />
    <synapse sourceNeuronName = "3" targetNeuronName = "10" weight = "-0.8103907479041264" />
    <synapse sourceNeuronName = "3" targetNeuronName = "11" weight = "-0.21248382235707775" />
    <synapse sourceNeuronName = "3" targetNeuronName = "12" weight = "0.39732641619106257" />
    <synapse sourceNeuronName = "3" targetNeuronName = "13" weight = "0.009213283255703697" />
    <synapse sourceNeuronName = "3" targetNeuronName = "14" weight = "-0.13992139703600537" />
    <synapse sourceNeuronName = "3" targetNeuronName = "15" weight = "0.5787020808223855" />
    <synapse sourceNeuronName = "4" targetNeuronName = "7" weight = "-0.05579987698549416" />
    <synapse sourceNeuronName = "4" targetNeuronName = "8" weight = "-0.6257329108660334" />
    <synapse sourceNeuronName = "4" targetNeuronName = "9" weight = "-0.6212243768709358" />
    <synapse sourceNeuronName = "4" targetNeuronName = "10" weight = "0.36072586138218643" />
    <synapse sourceNeuronName = "4" targetNeuronName = "11" weight = "0.7955763237259685" />
    <synapse sourceNeuronName = "4" targetNeuronName = "12" weight = "-0.248411595439487" />
    <synapse sourceNeuronName = "4" targetNeuronName = "13" weight = "-0.746257840453584" />
    <synapse sourceNeuronName = "4" targetNeuronName = "14" weight = "-0.7206422355111863" />
    <synapse sourceNeuronName = "4" targetNeuronName = "15" weight = "0.7105764361714602" />
    <synapse sourceNeuronName = "5" targetNeuronName = "7" weight = "0.2849047572502421" />
    <synapse sourceNeuronName = "5" targetNeuronName = "8" weight = "0.8660617352884088" />
    <synapse sourceNeuronName = "5" targetNeuronName = "9" weight = "0.25757356683487975" />
    <synapse sourceNeuronName = "5" targetNeuronName = "10" weight = "-0.07207067963357794" />
    <synapse sourceNeuronName = "5" targetNeuronName = "11" weight = "0.617415643046056" />
    <synapse sourceNeuronName = "5" targetNeuronName = "12" weight = "0.48668540626824397" />
    <synapse sourceNeuronName = "5" targetNeuronName = "13" weight = "-0.5778798512280936" />
    <synapse sourceNeuronName = "5" targetNeuronName = "14" weight = "-0.30089873182625704" />
    <synapse sourceNeuronName = "5" targetNeuronName = "15" weight = "-0.980120398323167" />
    <synapse sourceNeuronName = "6" targetNeuronName = "7" weight = "0.6437818645933038" />
    <synapse sourceNeuronName = "6" targetNeuronName = "8" weight = "-0.0525138552459794" />
    <synapse sourceNeuronName = "6" targetNeuronName = "9" weight = "0.08889471919229663" />
    <synapse sourceNeuronName = "6" targetNeuronName = "10" weight = "0.855451193036741" />
    <synapse sourceNeuronName = "6" targetNeuronName = "11" weight = "0.9042043888106792" />
    <synapse sourceNeuronName = "6" targetNeuronName = "12" weight = "0.1379520365864002" />
    <synapse sourceNeuronName = "6" targetNeuronName = "13" weight = "0.3484495211957157" />
    <synapse sourceNeuronName = "6" targetNeuronName = "14" weight = "0.8335002817517037" />
    <synapse sourceNeuronName = "6" targetNeuronName = "15" weight = "-0.12406446693193884" />
    <synapse sourceNeuronName = "7" targetNeuronName = "7" weight = "-0.822882375672779" />
    <synapse sourceNeuronName = "7" targetNeuronName = "8" weight = "-0.12034071008554137" />
    <synapse sourceNeuronName = "7" targetNeuronName = "9" weight = "0.995064947274025" />
    <synapse sourceNeuronName = "7" targetNeuronName = "10" weight = "-0.3353817548596998" />
    <synapse sourceNeuronName = "7" targetNeuronName = "11" weight = "-0.09914325445803707" />
    <synapse sourceNeuronName = "7" targetNeuronName = "12" weight = "0.470687467827567" />
    <synapse sourceNeuronName = "7" targetNeuronName = "13" weight = "-0.4765081332833767" />
    <synapse sourceNeuronName = "7" targetNeuronName = "14" weight = "-0.4341235421932135" />
    <synapse sourceNeuronName = "7" targetNeuronName = "15" weight = "-0.8512119011272365" />
=======
    <neuron name = "0" type = "sensor" linkName = "Link5" />
    <neuron name = "1" type = "sensor" linkName = "Link3" />
    <neuron name = "2" type = "sensor" linkName = "Start" />
    <neuron name = "3" type = "motor"  jointName = "Start_Link1" />
    <neuron name = "4" type = "motor"  jointName = "Start_Link2" />
    <neuron name = "5" type = "motor"  jointName = "Start_Link3" />
    <neuron name = "6" type = "motor"  jointName = "Link3_Link4" />
    <neuron name = "7" type = "motor"  jointName = "Link1_Link5" />
    <neuron name = "8" type = "motor"  jointName = "Link4_Link6" />
    <neuron name = "9" type = "motor"  jointName = "Link6_Link7" />
    <neuron name = "10" type = "motor"  jointName = "Start_Link8" />
    <neuron name = "11" type = "motor"  jointName = "Link1_Link9" />
    <synapse sourceNeuronName = "1" targetNeuronName = "3" weight = "-0.3455386344650315" />
    <synapse sourceNeuronName = "1" targetNeuronName = "4" weight = "0.2920752016847159" />
    <synapse sourceNeuronName = "1" targetNeuronName = "5" weight = "-0.6933947809606451" />
    <synapse sourceNeuronName = "1" targetNeuronName = "6" weight = "-0.9077417003935453" />
    <synapse sourceNeuronName = "1" targetNeuronName = "7" weight = "0.6431656356334989" />
    <synapse sourceNeuronName = "1" targetNeuronName = "8" weight = "-0.8414020527392518" />
    <synapse sourceNeuronName = "1" targetNeuronName = "9" weight = "0.9341094797376688" />
    <synapse sourceNeuronName = "1" targetNeuronName = "10" weight = "-0.5131501233101681" />
    <synapse sourceNeuronName = "1" targetNeuronName = "11" weight = "-0.2975787778416874" />
    <synapse sourceNeuronName = "2" targetNeuronName = "3" weight = "-0.05007669134853132" />
    <synapse sourceNeuronName = "2" targetNeuronName = "4" weight = "-0.8182214176133213" />
    <synapse sourceNeuronName = "2" targetNeuronName = "5" weight = "-0.8555150553788289" />
    <synapse sourceNeuronName = "2" targetNeuronName = "6" weight = "0.4440809512350168" />
    <synapse sourceNeuronName = "2" targetNeuronName = "7" weight = "-0.49909000673462534" />
    <synapse sourceNeuronName = "2" targetNeuronName = "8" weight = "-0.3334989642981372" />
    <synapse sourceNeuronName = "2" targetNeuronName = "9" weight = "0.9056820723534122" />
    <synapse sourceNeuronName = "2" targetNeuronName = "10" weight = "0.775677380636324" />
    <synapse sourceNeuronName = "2" targetNeuronName = "11" weight = "-0.9919019086325347" />
    <synapse sourceNeuronName = "3" targetNeuronName = "3" weight = "-0.7483959071020567" />
    <synapse sourceNeuronName = "3" targetNeuronName = "4" weight = "0.27855710425409286" />
    <synapse sourceNeuronName = "3" targetNeuronName = "5" weight = "0.9189036202788412" />
    <synapse sourceNeuronName = "3" targetNeuronName = "6" weight = "0.9062910360064254" />
    <synapse sourceNeuronName = "3" targetNeuronName = "7" weight = "-0.24182721783240946" />
    <synapse sourceNeuronName = "3" targetNeuronName = "8" weight = "-0.06856862697764865" />
    <synapse sourceNeuronName = "3" targetNeuronName = "9" weight = "-0.5922443248953029" />
    <synapse sourceNeuronName = "3" targetNeuronName = "10" weight = "-0.1400844836812265" />
    <synapse sourceNeuronName = "3" targetNeuronName = "11" weight = "0.6111925257359168" />
>>>>>>> Stashed changes:6.nndf
</neuralNetwork>